\data\
ngram 1=14
ngram 2=0

\1-grams:
-99.0000000 <s> -0.3010
-99.0000000 </s> 0.0000
-99.0000000 A -0.3010
-99.0000000 C -0.3010
-99.0000000 D -0.3010
-99.0000000 E -0.3010
-99.0000000 F -0.3010
-99.0000000 L -0.3010
-99.0000000 N -0.3010
-99.0000000 O -0.3010
-99.0000000 P -0.3010
-99.0000000 T -0.3010
-99.0000000 U -0.3010
-99.0000000 Z -0.3010

\2-grams:

\end\
